{
  "type": "LSTM",
  "options": {
    "inputSize": 31,
    "inputRange": 31,
    "hiddenLayers": [
      20,
      20
    ],
    "outputSize": 31,
    "decayRate": 0.999,
    "smoothEps": 1e-8,
    "regc": 0.000001,
    "clipval": 5,
    "maxPredictionLength": 100,
    "dataFormatter": {
      "values": [
        "my unit test failed",
        "software",
        "tried the program, but it was buggy",
        "i need a new power supply",
        "hardware",
        "the drive has a 2TB capacity",
        "unit-tests",
        "program",
        "power supply",
        "drive",
        "it needs more memory",
        "code",
        "i found some bugs in the code",
        "i swapped the memory",
        "i tested the code",
        "i love computers",
        "programming",
        "i broke my pc",
        "computer",
        "buy me a laptop",
        "i love to play games"
      ],
      "indexTable": {
        "2": 22,
        "m": 0,
        "y": 1,
        " ": 2,
        "u": 3,
        "n": 4,
        "i": 5,
        "t": 6,
        "e": 7,
        "s": 8,
        "f": 9,
        "a": 10,
        "l": 11,
        "d": 12,
        "o": 13,
        "w": 14,
        "r": 15,
        "h": 16,
        "p": 17,
        "g": 18,
        ",": 19,
        "b": 20,
        "v": 21,
        "T": 23,
        "B": 24,
        "c": 25,
        "-": 26,
        "k": 27,
        "stop-input": 28,
        "start-output": 29,
        "unrecognized": 30
      },
      "characterTable": {
        "0": "m",
        "1": "y",
        "2": " ",
        "3": "u",
        "4": "n",
        "5": "i",
        "6": "t",
        "7": "e",
        "8": "s",
        "9": "f",
        "10": "a",
        "11": "l",
        "12": "d",
        "13": "o",
        "14": "w",
        "15": "r",
        "16": "h",
        "17": "p",
        "18": "g",
        "19": ",",
        "20": "b",
        "21": "v",
        "22": "2",
        "23": "T",
        "24": "B",
        "25": "c",
        "26": "-",
        "27": "k",
        "28": null,
        "29": null,
        "30": null
      },
      "characters": [
        "m",
        "y",
        " ",
        "u",
        "n",
        "i",
        "t",
        "e",
        "s",
        "f",
        "a",
        "l",
        "d",
        "o",
        "w",
        "r",
        "h",
        "p",
        "g",
        ",",
        "b",
        "v",
        "2",
        "T",
        "B",
        "c",
        "-",
        "k",
        "stop-input",
        "start-output",
        "unrecognized"
      ],
      "specialIndexes": [
        28,
        29,
        30
      ]
    }
  },
  "input": {
    "rows": 32,
    "columns": 31,
    "weights": {
      "0": 0.07667794823646545,
      "1": 1.099448561668396,
      "2": 0.09976432472467422,
      "3": 0.5886770486831665,
      "4": 1.0958166122436523,
      "5": 0.5102279186248779,
      "6": 0.6739668846130371,
      "7": 1.4764446020126343,
      "8": 0.784199059009552,
      "9": 1.2143043279647827,
      "10": 0.501288115978241,
      "11": -0.03678504750132561,
      "12": 0.30748680233955383,
      "13": 1.1053645610809326,
      "14": -0.6773750185966492,
      "15": 0.9877715706825256,
      "16": -1.2134028673171997,
      "17": 0.2594788074493408,
      "18": 0.16886325180530548,
      "19": -0.8867584466934204,
      "20": 0.2627864480018616,
      "21": -0.5773431658744812,
      "22": 0.6369346976280212,
      "23": 1.487192153930664,
      "24": -0.4725284278392792,
      "25": 0.5876072645187378,
      "26": -1.0691900253295898,
      "27": 0.6287773251533508,
      "28": -0.9799442291259766,
      "29": -0.48030880093574524,
      "30": 1.0544389486312866,
      "31": 0.12399516999721527,
      "32": -1.1638829708099365,
      "33": 1.9525115489959717,
      "34": -0.5160945653915405,
      "35": -0.990617573261261,
      "36": -1.0408726930618286,
      "37": 0.03253328800201416,
      "38": -0.9917020201683044,
      "39": -1.439976692199707,
      "40": 1.217045545578003,
      "41": -1.9493845701217651,
      "42": -1.532623291015625,
      "43": -0.4976290166378021,
      "44": 1.279099941253662,
      "45": 1.6637346744537354,
      "46": -1.2534427642822266,
      "47": 0.8644542694091797,
      "48": -1.4810084104537964,
      "49": 0.8823806643486023,
      "50": -0.47931036353111267,
      "51": -1.8484587669372559,
      "52": 1.0675601959228516,
      "53": -0.8196614384651184,
      "54": -0.4921925961971283,
      "55": 0.18134444952011108,
      "56": -2.3127055168151855,
      "57": 0.13111910223960876,
      "58": 0.5263928174972534,
      "59": 0.5296397805213928,
      "60": 1.239108681678772,
      "61": -1.0452907085418701,
      "62": 3.0531809329986572,
      "63": 0.4918133020401001,
      "64": 2.794903516769409,
      "65": 4.54811429977417,
      "66": -1.044613242149353,
      "67": -0.7145500779151917,
      "68": 1.4529038667678833,
      "69": -0.2639453709125519,
      "70": 0.14794376492500305,
      "71": 0.14229965209960938,
      "72": -1.5774701833724976,
      "73": 0.8839224576950073,
      "74": -4.255926132202148,
      "75": 0.147867813706398,
      "76": -0.30452632904052734,
      "77": -0.17917807400226593,
      "78": 0.7403061985969543,
      "79": 4.910211563110352,
      "80": -2.4104559421539307,
      "81": -0.6165496706962585,
      "82": 3.248410940170288,
      "83": -0.11569167673587799,
      "84": -0.2777782678604126,
      "85": -0.23654185235500336,
      "86": -0.5570881962776184,
      "87": 0.845233142375946,
      "88": 0.5126826167106628,
      "89": -4.083595275878906,
      "90": -0.39292049407958984,
      "91": -0.084335558116436,
      "92": -0.46893495321273804,
      "93": 0.5312960147857666,
      "94": -0.4920411705970764,
      "95": 0.21610711514949799,
      "96": -0.16048574447631836,
      "97": -0.6996569633483887,
      "98": -0.30633482336997986,
      "99": 0.6876639127731323,
      "100": -0.9082114100456238,
      "101": -1.1045122146606445,
      "102": -0.4065450131893158,
      "103": 0.3400661051273346,
      "104": 0.12770555913448334,
      "105": 0.3716335594654083,
      "106": -3.106893539428711,
      "107": 2.0019290447235107,
      "108": -0.26105430722236633,
      "109": 0.5013272762298584,
      "110": -0.13038304448127747,
      "111": -0.5436109900474548,
      "112": 1.5808019638061523,
      "113": 0.8060860633850098,
      "114": 0.4023605287075043,
      "115": -1.7646191120147705,
      "116": -1.113386869430542,
      "117": -0.2456599622964859,
      "118": -1.5365653038024902,
      "119": 1.0340995788574219,
      "120": -0.5255212783813477,
      "121": 0.8608357906341553,
      "122": 2.437943696975708,
      "123": -0.5517966151237488,
      "124": -1.3549058437347412,
      "125": 0.9548913240432739,
      "126": -1.945499300956726,
      "127": 0.7376196384429932,
      "128": 0.43717437982559204,
      "129": 1.0692696571350098,
      "130": -3.774519681930542,
      "131": 0.6634193658828735,
      "132": -1.4431687593460083,
      "133": -0.18704858422279358,
      "134": 1.4952507019042969,
      "135": 0.5577257871627808,
      "136": -0.662868082523346,
      "137": 0.8962017893791199,
      "138": -2.2478063106536865,
      "139": 0.2536332607269287,
      "140": -0.1458209604024887,
      "141": 0.4553797245025635,
      "142": -0.04074430465698242,
      "143": 1.840242624282837,
      "144": -1.2524489164352417,
      "145": -0.8608102202415466,
      "146": 1.602340817451477,
      "147": 0.28859156370162964,
      "148": -0.3239585757255554,
      "149": 2.2241313457489014,
      "150": -0.8843203186988831,
      "151": -0.6767183542251587,
      "152": -0.2051296979188919,
      "153": -2.4290006160736084,
      "154": 1.0211421251296997,
      "155": 0.5601856708526611,
      "156": 0.8989605903625488,
      "157": 0.5911597609519958,
      "158": 0.29275384545326233,
      "159": 1.4158320426940918,
      "160": 0.7387869954109192,
      "161": 1.0218170881271362,
      "162": 1.4508123397827148,
      "163": 3.048574447631836,
      "164": 2.4050180912017822,
      "165": -0.028072336688637733,
      "166": 0.8810379505157471,
      "167": 0.009691393002867699,
      "168": 0.9736475944519043,
      "169": -0.4889136254787445,
      "170": 2.141869306564331,
      "171": -1.1324405670166016,
      "172": 0.9628172516822815,
      "173": 0.36108142137527466,
      "174": -2.6008970737457275,
      "175": 3.0505154132843018,
      "176": -0.994695246219635,
      "177": 0.7200018763542175,
      "178": 0.812754213809967,
      "179": -3.952901840209961,
      "180": 1.3592824935913086,
      "181": -0.8810218572616577,
      "182": 1.5119259357452393,
      "183": -0.5233274698257446,
      "184": 0.4497561752796173,
      "185": 1.3127270936965942,
      "186": 0.9536170363426208,
      "187": -0.03219642490148544,
      "188": 0.4696253836154938,
      "189": 2.2006072998046875,
      "190": 0.22432160377502441,
      "191": 0.7956945896148682,
      "192": 0.16731226444244385,
      "193": 0.9707954525947571,
      "194": 2.201512098312378,
      "195": 0.4767029285430908,
      "196": -0.8393579125404358,
      "197": 0.8512900471687317,
      "198": 0.6525461673736572,
      "199": -0.3768867552280426,
      "200": -0.6129477620124817,
      "201": 1.6126439571380615,
      "202": -0.33348917961120605,
      "203": 1.4262837171554565,
      "204": -1.0763436555862427,
      "205": -1.8935338258743286,
      "206": 2.9381206035614014,
      "207": -0.341736763715744,
      "208": 0.7074652910232544,
      "209": 1.0025758743286133,
      "210": -1.7431551218032837,
      "211": -0.12212607264518738,
      "212": -0.26684966683387756,
      "213": -0.32638007402420044,
      "214": -1.0070607662200928,
      "215": -0.5929749608039856,
      "216": 0.7703078985214233,
      "217": 1.2480491399765015,
      "218": -0.11805615574121475,
      "219": 0.5580403208732605,
      "220": 1.0481905937194824,
      "221": -0.36476877331733704,
      "222": 0.42115768790245056,
      "223": -1.3155512809753418,
      "224": -0.4435043931007385,
      "225": 0.3856620490550995,
      "226": -0.27297264337539673,
      "227": -0.1389794498682022,
      "228": 0.6960718035697937,
      "229": -0.08734074980020523,
      "230": -0.7588528990745544,
      "231": 0.4058997333049774,
      "232": -0.7077288627624512,
      "233": 0.11251387745141983,
      "234": 1.825337529182434,
      "235": -1.9529883861541748,
      "236": 0.06262579560279846,
      "237": 1.601415753364563,
      "238": 0.026899298653006554,
      "239": -1.7633336782455444,
      "240": -0.16833704710006714,
      "241": 2.535902738571167,
      "242": 0.24798551201820374,
      "243": -0.026978710666298866,
      "244": -2.4993128776550293,
      "245": -0.026643289253115654,
      "246": 0.842319130897522,
      "247": 0.39424481987953186,
      "248": 1.7363616228103638,
      "249": 0.12571972608566284,
      "250": 1.0895804166793823,
      "251": 1.0730303525924683,
      "252": 0.04400556534528732,
      "253": 0.06541378051042557,
      "254": -0.14007432758808136,
      "255": 0.0597248412668705,
      "256": 0.7916995882987976,
      "257": -1.0910953283309937,
      "258": 0.5519751310348511,
      "259": 1.5511192083358765,
      "260": -1.1100289821624756,
      "261": -0.9927703142166138,
      "262": 0.8339409828186035,
      "263": -0.03796357661485672,
      "264": -0.27378395199775696,
      "265": 1.4600995779037476,
      "266": -1.6857458353042603,
      "267": -0.4321518540382385,
      "268": 1.455771803855896,
      "269": -0.04648901894688606,
      "270": -1.9333406686782837,
      "271": 0.5635097026824951,
      "272": -1.0929776430130005,
      "273": 0.5312835574150085,
      "274": -0.44977259635925293,
      "275": -1.1933138370513916,
      "276": -0.306122362613678,
      "277": 1.218354344367981,
      "278": 0.0772463008761406,
      "279": -0.3575388789176941,
      "280": 0.1414695531129837,
      "281": -0.07242525368928909,
      "282": 0.0556991770863533,
      "283": 0.29329875111579895,
      "284": -0.08933901786804199,
      "285": 0.5393725037574768,
      "286": -0.6339226961135864,
      "287": -0.0027251229621469975,
      "288": -1.8224936723709106,
      "289": 0.837586522102356,
      "290": 0.757645845413208,
      "291": -1.780759334564209,
      "292": -0.09080120921134949,
      "293": 0.07031085342168808,
      "294": -0.4587121307849884,
      "295": -0.005634985398501158,
      "296": 0.5945808291435242,
      "297": 0.013186058960855007,
      "298": -0.015470258891582489,
      "299": 0.10630349814891815,
      "300": -0.06249633803963661,
      "301": -0.005700914189219475,
      "302": 0.20117488503456116,
      "303": 1.0212241411209106,
      "304": 0.9703570008277893,
      "305": -0.7909249663352966,
      "306": -1.0944565534591675,
      "307": 0.5595367550849915,
      "308": 0.0043384013697505,
      "309": 0.4570058584213257,
      "310": 0.4212806522846222,
      "311": -1.0464822053909302,
      "312": 0.9104605913162231,
      "313": 0.7782578468322754,
      "314": -0.7281895279884338,
      "315": -1.0870473384857178,
      "316": -0.31958577036857605,
      "317": -1.2518508434295654,
      "318": -1.2596375942230225,
      "319": -0.7008999586105347,
      "320": -1.3783730268478394,
      "321": 0.36499807238578796,
      "322": -0.22261272370815277,
      "323": 0.13824845850467682,
      "324": 0.6287936568260193,
      "325": -1.0098199844360352,
      "326": 0.6764096021652222,
      "327": 0.7399235963821411,
      "328": -0.9287532567977905,
      "329": 0.14282681047916412,
      "330": 0.658777117729187,
      "331": 0.7749694585800171,
      "332": -0.434904545545578,
      "333": -0.5841203331947327,
      "334": 0.20344579219818115,
      "335": -1.1395319700241089,
      "336": 0.8280285596847534,
      "337": -1.273898720741272,
      "338": 0.5633269548416138,
      "339": 0.25496745109558105,
      "340": -1.2133806943893433,
      "341": 0.0054429201409220695,
      "342": -0.20974896848201752,
      "343": -0.8233485221862793,
      "344": 0.3746296167373657,
      "345": -0.1127055436372757,
      "346": -0.32978886365890503,
      "347": 0.31909510493278503,
      "348": -0.433208703994751,
      "349": -0.2599693834781647,
      "350": -0.2701249420642853,
      "351": 0.21013294160366058,
      "352": -0.227700337767601,
      "353": 0.9630527496337891,
      "354": 0.38045188784599304,
      "355": -0.3889721930027008,
      "356": -0.3421899676322937,
      "357": 0.26732173562049866,
      "358": -0.10904239118099213,
      "359": 0.0477769672870636,
      "360": 0.8282330632209778,
      "361": 0.5203734040260315,
      "362": 0.10303252190351486,
      "363": 0.3392689824104309,
      "364": -0.29066699743270874,
      "365": -0.2079443335533142,
      "366": 0.03650512546300888,
      "367": 0.38653212785720825,
      "368": 1.3541289567947388,
      "369": 0.5096467137336731,
      "370": -1.206823706626892,
      "371": -0.2818242609500885,
      "372": -0.4929031729698181,
      "373": -0.14030668139457703,
      "374": -2.731701612472534,
      "375": -1.5823867321014404,
      "376": 0.5330480337142944,
      "377": 2.043419122695923,
      "378": -1.1287846565246582,
      "379": 0.04069026932120323,
      "380": -0.5835698246955872,
      "381": -3.074354887008667,
      "382": 1.4449031352996826,
      "383": 1.7666864395141602,
      "384": 2.266239881515503,
      "385": -2.2314541339874268,
      "386": 1.1814706325531006,
      "387": 0.7270646691322327,
      "388": -0.6922408938407898,
      "389": -0.7839061617851257,
      "390": -1.6752489805221558,
      "391": 0.14057591557502747,
      "392": 1.3707541227340698,
      "393": -1.7653586864471436,
      "394": -3.3370466232299805,
      "395": 0.6029616594314575,
      "396": -1.728482961654663,
      "397": 1.0433167219161987,
      "398": -0.2438344657421112,
      "399": 0.27572718262672424,
      "400": -0.8373425006866455,
      "401": 1.8479865789413452,
      "402": 1.4305307865142822,
      "403": 0.08830658346414566,
      "404": -0.7307038307189941,
      "405": -0.023032227531075478,
      "406": -1.8265630006790161,
      "407": -0.2995680272579193,
      "408": 0.7385702729225159,
      "409": 3.165910243988037,
      "410": -0.4068710505962372,
      "411": 0.7598995566368103,
      "412": -0.22315354645252228,
      "413": -0.10122541338205338,
      "414": -0.619978666305542,
      "415": 0.443556547164917,
      "416": -0.4873562157154083,
      "417": -0.005062860902398825,
      "418": 0.7748610377311707,
      "419": -0.19357742369174957,
      "420": -1.2232096195220947,
      "421": -0.28610286116600037,
      "422": -1.2052459716796875,
      "423": -0.2208070605993271,
      "424": 0.5172160267829895,
      "425": -1.1547096967697144,
      "426": 0.40486252307891846,
      "427": -1.7032055854797363,
      "428": -0.8326265215873718,
      "429": 0.852196216583252,
      "430": 1.9986608028411865,
      "431": 1.0439413785934448,
      "432": 1.251401424407959,
      "433": 0.5890799164772034,
      "434": -0.07871187478303909,
      "435": 0.5083087682723999,
      "436": 0.11650027334690094,
      "437": 0.9112628102302551,
      "438": 0.8340302109718323,
      "439": 0.3268719017505646,
      "440": 0.3235081732273102,
      "441": 0.4100426137447357,
      "442": 1.4437060356140137,
      "443": 0.5343912839889526,
      "444": 0.5976777672767639,
      "445": 0.42363160848617554,
      "446": 0.11447563767433167,
      "447": 1.7609070539474487,
      "448": -0.1527707427740097,
      "449": 0.9305656552314758,
      "450": -1.0480221509933472,
      "451": 0.6517502665519714,
      "452": -0.14856098592281342,
      "453": -0.8954567909240723,
      "454": 1.286332130432129,
      "455": -0.9035019278526306,
      "456": 0.584409236907959,
      "457": 0.5935490131378174,
      "458": -2.3226583003997803,
      "459": 0.4122573733329773,
      "460": -1.0176994800567627,
      "461": 1.2903871536254883,
      "462": -0.6387683153152466,
      "463": 0.2881169021129608,
      "464": 0.4678921103477478,
      "465": 0.5143972039222717,
      "466": 0.1030004471540451,
      "467": 0.9715800881385803,
      "468": 0.8562451601028442,
      "469": 0.1845572292804718,
      "470": 1.2615861892700195,
      "471": 0.18343596160411835,
      "472": 0.7269797921180725,
      "473": 1.206275224685669,
      "474": 1.1041163206100464,
      "475": -0.5495580434799194,
      "476": 0.24125471711158752,
      "477": 0.43516820669174194,
      "478": -0.5831737518310547,
      "479": 0.6491667032241821,
      "480": 1.4576225280761719,
      "481": -0.5987053513526917,
      "482": 0.38096532225608826,
      "483": -0.22080640494823456,
      "484": -1.997814655303955,
      "485": 1.0931578874588013,
      "486": -0.506649911403656,
      "487": 0.48187586665153503,
      "488": 0.6837494373321533,
      "489": -1.9562219381332397,
      "490": -0.9405772089958191,
      "491": -0.7186900973320007,
      "492": 0.4196680188179016,
      "493": -0.6979146003723145,
      "494": 0.7032950520515442,
      "495": 1.3883525133132935,
      "496": -0.32876521348953247,
      "497": 0.5632418394088745,
      "498": -0.23698079586029053,
      "499": -0.6166778802871704,
      "500": 0.2269895374774933,
      "501": 0.23000764846801758,
      "502": 0.08683017641305923,
      "503": 0.2695685029029846,
      "504": 0.4314168095588684,
      "505": -0.6585165858268738,
      "506": 1.088353157043457,
      "507": 0.06505834311246872,
      "508": -0.15618647634983063,
      "509": -0.513157844543457,
      "510": 0.7660670280456543,
      "511": 0.40141406655311584,
      "512": -0.3171893060207367,
      "513": -0.8546906113624573,
      "514": 0.737471878528595,
      "515": -0.36731743812561035,
      "516": -0.7213883399963379,
      "517": -0.13195884227752686,
      "518": -0.47419342398643494,
      "519": 0.6170788407325745,
      "520": -0.03573542460799217,
      "521": 0.4510459005832672,
      "522": -0.5442429780960083,
      "523": 0.3290978968143463,
      "524": 0.06581974029541016,
      "525": 0.6021764874458313,
      "526": 0.6786813735961914,
      "527": -0.5123927593231201,
      "528": 0.39947107434272766,
      "529": 0.6557191014289856,
      "530": -0.19936531782150269,
      "531": -0.576546847820282,
      "532": -0.21256504952907562,
      "533": 1.6522650718688965,
      "534": 0.3123290538787842,
      "535": 1.9058139324188232,
      "536": 0.9355208873748779,
      "537": 0.34095773100852966,
      "538": -0.28567004203796387,
      "539": 0.8976891040802002,
      "540": 0.575191855430603,
      "541": 0.569553792476654,
      "542": 1.2111698389053345,
      "543": -0.6060102581977844,
      "544": -0.572165846824646,
      "545": 1.4130176305770874,
      "546": -2.275865316390991,
      "547": -0.23940110206604004,
      "548": 0.31109052896499634,
      "549": 1.4823675155639648,
      "550": 1.1109760999679565,
      "551": 0.8975803852081299,
      "552": -1.214926838874817,
      "553": -0.9988780617713928,
      "554": 1.4219344854354858,
      "555": -0.1645183265209198,
      "556": 0.06204754486680031,
      "557": 1.0798301696777344,
      "558": 0.6955412030220032,
      "559": -1.7946885824203491,
      "560": 0.34343045949935913,
      "561": -0.5894632339477539,
      "562": -0.6911739110946655,
      "563": -1.951690912246704,
      "564": 0.9699975848197937,
      "565": -2.6199896335601807,
      "566": -1.9760167598724365,
      "567": -1.1142257452011108,
      "568": -0.3960074186325073,
      "569": -0.9460461735725403,
      "570": -0.07602681964635849,
      "571": -2.9461829662323,
      "572": 2.261464834213257,
      "573": -1.0823020935058594,
      "574": 0.9832342863082886,
      "575": -1.3487398624420166,
      "576": -0.7382103800773621,
      "577": 1.4638432264328003,
      "578": -0.27301719784736633,
      "579": 1.0527201890945435,
      "580": -2.6525001525878906,
      "581": -2.835597276687622,
      "582": 0.1919216513633728,
      "583": -3.5384042263031006,
      "584": 2.034677028656006,
      "585": -0.03616523742675781,
      "586": 2.1298556327819824,
      "587": 2.3760719299316406,
      "588": -2.016312837600708,
      "589": 1.2142072916030884,
      "590": 1.7288684844970703,
      "591": 1.47829008102417,
      "592": 2.09655499458313,
      "593": 1.6828967332839966,
      "594": -1.0559080839157104,
      "595": -1.1148436069488525,
      "596": 1.854864478111267,
      "597": 1.8636126518249512,
      "598": -0.4039905071258545,
      "599": 1.0883828401565552,
      "600": 1.3884187936782837,
      "601": -1.3583166599273682,
      "602": -1.1092668771743774,
      "603": 1.737857699394226,
      "604": 0.6442050933837891,
      "605": -1.9018253087997437,
      "606": 2.103891372680664,
      "607": -1.2356549501419067,
      "608": 0.011949359439313412,
      "609": 2.4358747005462646,
      "610": -1.0419678688049316,
      "611": -1.0255239009857178,
      "612": 2.2080512046813965,
      "613": -0.6669163703918457,
      "614": 1.9662623405456543,
      "615": -2.019113779067993,
      "616": -2.3943471908569336,
      "617": -2.118131399154663,
      "618": 1.6234486103057861,
      "619": -0.4245297312736511,
      "620": 0.6094154119491577,
      "621": 6.079814910888672,
      "622": 2.7579219341278076,
      "623": 0.21683718264102936,
      "624": 3.0604302883148193,
      "625": 0.4405061602592468,
      "626": -2.5685460567474365,
      "627": 1.274251937866211,
      "628": 4.347007751464844,
      "629": -4.146809101104736,
      "630": 2.3792197704315186,
      "631": 5.9533820152282715,
      "632": -3.578739881515503,
      "633": -4.119875907897949,
      "634": 3.413304328918457,
      "635": 6.408412933349609,
      "636": -0.6266487836837769,
      "637": 3.165879249572754,
      "638": -2.8176989555358887,
      "639": -1.1718469858169556,
      "640": 5.945137977600098,
      "641": -2.815582036972046,
      "642": -1.9647563695907593,
      "643": 3.6084799766540527,
      "644": -0.8130736947059631,
      "645": 7.204197406768799,
      "646": -2.682884454727173,
      "647": -6.192241668701172,
      "648": -3.053802490234375,
      "649": 1.2055697441101074,
      "650": 2.3949947357177734,
      "651": 1.2076295614242554,
      "652": 1.5717600584030151,
      "653": 0.7779299020767212,
      "654": 1.2413475513458252,
      "655": 3.022494077682495,
      "656": -0.9709281325340271,
      "657": 0.7963125705718994,
      "658": -1.9354561567306519,
      "659": -0.4262484908103943,
      "660": -5.541525363922119,
      "661": 3.568364143371582,
      "662": 5.053281784057617,
      "663": -3.843752145767212,
      "664": -1.6635061502456665,
      "665": -1.0812376737594604,
      "666": -1.6913646459579468,
      "667": 0.3086835443973541,
      "668": 3.4007811546325684,
      "669": -1.833653211593628,
      "670": 1.913953423500061,
      "671": 3.6554934978485107,
      "672": -3.627603530883789,
      "673": 0.3328246772289276,
      "674": -3.211538076400757,
      "675": -1.0113165378570557,
      "676": 0.08495788276195526,
      "677": -0.9930781722068787,
      "678": -2.7767505645751953,
      "679": -2.072397232055664,
      "680": -0.27800703048706055,
      "681": -1.5048835277557373,
      "682": -1.2082934379577637,
      "683": -2.392467737197876,
      "684": -0.241503044962883,
      "685": -1.1924465894699097,
      "686": -2.3553712368011475,
      "687": -1.0537165403366089,
      "688": 0.07216045260429382,
      "689": -3.3276169300079346,
      "690": -1.3908039331436157,
      "691": 1.144076943397522,
      "692": -1.5369668006896973,
      "693": -0.772713303565979,
      "694": 2.8072280883789062,
      "695": 5.035240650177002,
      "696": -0.9288983345031738,
      "697": -1.9692565202713013,
      "698": 2.317613363265991,
      "699": -0.4025631844997406,
      "700": 1.4560881853103638,
      "701": -0.04780682176351547,
      "702": -0.7255134582519531,
      "703": 2.0483322143554688,
      "704": 1.9047077894210815,
      "705": -1.414947748184204,
      "706": 3.9485023021698,
      "707": -1.6013658046722412,
      "708": 2.123554229736328,
      "709": -0.011366569437086582,
      "710": 1.920365333557129,
      "711": -1.2566211223602295,
      "712": -1.3410165309906006,
      "713": 1.7772129774093628,
      "714": -4.210947513580322,
      "715": 5.697119235992432,
      "716": -0.9995834827423096,
      "717": -4.915945053100586,
      "718": -4.629003524780273,
      "719": 5.043845176696777,
      "720": -6.851296901702881,
      "721": -2.284193992614746,
      "722": 7.10449743270874,
      "723": -5.107893466949463,
      "724": -3.21157169342041,
      "725": 3.155081033706665,
      "726": 1.178417444229126,
      "727": 2.411231756210327,
      "728": -2.653474807739258,
      "729": 5.53494930267334,
      "730": -0.47560495138168335,
      "731": -1.5510672330856323,
      "732": -2.4233734607696533,
      "733": 0.11471258848905563,
      "734": 7.141432285308838,
      "735": -2.949349880218506,
      "736": -4.70714807510376,
      "737": 1.837480902671814,
      "738": -6.372743129730225,
      "739": 3.7746849060058594,
      "740": 2.043992757797241,
      "741": 5.020786762237549,
      "742": -0.7495965361595154,
      "743": -6.672865867614746,
      "744": 2.03826904296875,
      "745": 1.5664373636245728,
      "746": 4.640037536621094,
      "747": 2.2904112339019775,
      "748": 0.6743783354759216,
      "749": 3.000606060028076,
      "750": 1.0105979442596436,
      "751": 5.149588584899902,
      "752": -0.08069971203804016,
      "753": 7.132424354553223,
      "754": -2.765305757522583,
      "755": -2.29641056060791,
      "756": -0.056012190878391266,
      "757": -2.268237352371216,
      "758": 5.237928867340088,
      "759": 0.8335512280464172,
      "760": -2.9731638431549072,
      "761": 0.33294981718063354,
      "762": 2.572134494781494,
      "763": -3.5863256454467773,
      "764": 4.188107013702393,
      "765": -2.1418232917785645,
      "766": 0.724246621131897,
      "767": 1.6818842887878418,
      "768": -7.55210542678833,
      "769": -1.3989529609680176,
      "770": -4.3279900550842285,
      "771": 7.720302104949951,
      "772": -5.015145301818848,
      "773": 6.496297359466553,
      "774": 0.28201818466186523,
      "775": 3.5354487895965576,
      "776": -3.7772459983825684,
      "777": 2.6679654121398926,
      "778": -1.2039427757263184,
      "779": -5.305927753448486,
      "780": -1.571492314338684,
      "781": -0.7473949193954468,
      "782": -6.149564266204834,
      "783": -2.720813035964966,
      "784": 5.146276950836182,
      "785": 0.12359625101089478,
      "786": -6.717898368835449,
      "787": 6.636178016662598,
      "788": -3.047008514404297,
      "789": -4.5916290283203125,
      "790": -5.690703392028809,
      "791": 5.882093906402588,
      "792": -6.946007251739502,
      "793": 3.780569553375244,
      "794": 4.476308345794678,
      "795": -4.409671306610107,
      "796": 3.849593162536621,
      "797": 2.690035343170166,
      "798": -6.935789585113525,
      "799": 5.601304054260254,
      "800": -3.401808500289917,
      "801": 3.948319435119629,
      "802": 1.6945316791534424,
      "803": 1.7970049381256104,
      "804": -3.8196182250976562,
      "805": -3.938070774078369,
      "806": -1.8476276397705078,
      "807": 0.0968470647931099,
      "808": -0.28240934014320374,
      "809": -0.6603506803512573,
      "810": -1.363863229751587,
      "811": -0.6252726316452026,
      "812": -2.2178878784179688,
      "813": -0.6440717577934265,
      "814": -3.820758581161499,
      "815": 0.7224055528640747,
      "816": -2.218010663986206,
      "817": -0.4665288031101227,
      "818": -0.6886163353919983,
      "819": 3.031982660293579,
      "820": -1.152430772781372,
      "821": -1.9549435377120972,
      "822": 1.163792371749878,
      "823": -2.630229949951172,
      "824": 3.9216132164001465,
      "825": 1.7775142192840576,
      "826": -2.5945780277252197,
      "827": 0.04319790378212929,
      "828": 4.823484897613525,
      "829": -1.5129432678222656,
      "830": 2.7005844116210938,
      "831": -0.09787340462207794,
      "832": -0.19471676647663116,
      "833": 0.7851592898368835,
      "834": -0.3613618314266205,
      "835": -2.5539710521698,
      "836": -1.6787153482437134,
      "837": -0.7055107951164246,
      "838": 0.8649137020111084,
      "839": -0.53265780210495,
      "840": 0.31182920932769775,
      "841": 5.579078197479248,
      "842": 6.824406623840332,
      "843": 0.8216164708137512,
      "844": 7.038585186004639,
      "845": -0.3975156545639038,
      "846": 3.7736055850982666,
      "847": -1.6431180238723755,
      "848": -1.1653766632080078,
      "849": 0.5287718772888184,
      "850": 2.5462892055511475,
      "851": -3.468942165374756,
      "852": 5.214252471923828,
      "853": -5.939337730407715,
      "854": -0.06242309510707855,
      "855": 0.8689653873443604,
      "856": -2.9204487800598145,
      "857": -0.9536123275756836,
      "858": -7.035879135131836,
      "859": 3.4821887016296387,
      "860": 5.954740047454834,
      "861": 3.3739371299743652,
      "862": -3.3740811347961426,
      "863": -6.420722484588623,
      "864": -0.4471043348312378,
      "865": -7.704774856567383,
      "866": -2.7581236362457275,
      "867": 4.4649858474731445,
      "868": 0.406198114156723,
      "869": -3.0028276443481445,
      "870": 3.307091474533081,
      "871": -4.675258159637451,
      "872": -3.817342519760132,
      "873": -0.6670495867729187,
      "874": -1.0207130908966064,
      "875": -1.7696893215179443,
      "876": -2.8963537216186523,
      "877": 7.55560827255249,
      "878": -5.200861930847168,
      "879": -6.2264862060546875,
      "880": 3.731943130493164,
      "881": -1.1784322261810303,
      "882": 2.70941162109375,
      "883": -1.2355939149856567,
      "884": 3.5669586658477783,
      "885": -4.586483478546143,
      "886": 5.671784400939941,
      "887": -1.1569488048553467,
      "888": -7.559183120727539,
      "889": 3.3926897048950195,
      "890": -1.2634168863296509,
      "891": -3.7272980213165283,
      "892": 4.50554084777832,
      "893": -3.36824893951416,
      "894": 3.552363395690918,
      "895": 5.357064723968506,
      "896": 2.0148754119873047,
      "897": 2.5234298706054688,
      "898": 3.6400771141052246,
      "899": -0.18634004890918732,
      "900": -1.9494389295578003,
      "901": -0.4376325309276581,
      "902": 1.29962956905365,
      "903": -2.031099557876587,
      "904": -0.5147255659103394,
      "905": -1.3504210710525513,
      "906": -1.6346790790557861,
      "907": -1.711030125617981,
      "908": 1.2310470342636108,
      "909": -1.027759075164795,
      "910": -1.415493130683899,
      "911": 2.711310625076294,
      "912": -0.1589381843805313,
      "913": -0.5406672358512878,
      "914": -0.6686070561408997,
      "915": 1.0185333490371704,
      "916": -0.5108739137649536,
      "917": -0.3241208493709564,
      "918": 0.8717378973960876,
      "919": 0.24048542976379395,
      "920": 0.6357061862945557,
      "921": 1.5694783926010132,
      "922": -0.8388681411743164,
      "923": -0.7551378011703491,
      "924": -1.3817384243011475,
      "925": 1.7784656286239624,
      "926": 1.63222074508667,
      "927": 1.2410547733306885,
      "928": -1.7655450105667114,
      "929": -0.9326927065849304,
      "930": -0.09226656705141068,
      "931": -0.9371086955070496,
      "932": -0.6360174417495728,
      "933": -0.37681686878204346,
      "934": -1.154130220413208,
      "935": -1.646826148033142,
      "936": 0.6203843355178833,
      "937": -1.3940790891647339,
      "938": -0.9482512474060059,
      "939": 0.7260808944702148,
      "940": -0.3716847896575928,
      "941": -0.8878909349441528,
      "942": 0.15353213250637054,
      "943": -0.13842464983463287,
      "944": -0.7092550992965698,
      "945": -1.3013925552368164,
      "946": 1.2392594814300537,
      "947": -1.1551992893218994,
      "948": 0.7707583904266357,
      "949": 0.9171289205551147,
      "950": -1.0317438840866089,
      "951": 1.6031848192214966,
      "952": 1.727952480316162,
      "953": -1.416857361793518,
      "954": 0.8977515697479248,
      "955": -0.40282899141311646,
      "956": 1.5145221948623657,
      "957": 0.5025596618652344,
      "958": 1.394845962524414,
      "959": -1.6087270975112915,
      "960": -1.2002557516098022,
      "961": 0.030162211507558823,
      "962": 0.05714206025004387,
      "963": 0.05786925554275513,
      "964": 0.033116232603788376,
      "965": -0.07868455350399017,
      "966": 0.03995213657617569,
      "967": -0.046068161725997925,
      "968": -0.028236066922545433,
      "969": 0.06271341443061829,
      "970": 0.04194139689207077,
      "971": 0.051907602697610855,
      "972": -0.07389501482248306,
      "973": -0.03332870453596115,
      "974": -0.011430468410253525,
      "975": -0.07723572105169296,
      "976": -0.016979577019810677,
      "977": 0.054934561252593994,
      "978": -0.050309378653764725,
      "979": 0.011604423634707928,
      "980": -0.013786579482257366,
      "981": -0.04855762794613838,
      "982": 0.017811700701713562,
      "983": -0.04726392775774002,
      "984": 0.005300268065184355,
      "985": 0.034367017447948456,
      "986": 0.030515799298882484,
      "987": 0.03539144992828369,
      "988": 0.015290950424969196,
      "989": -0.01247521210461855,
      "990": 0.0377424918115139,
      "991": -0.022511031478643417
    }
  },
  "hiddenLayers": [
    {
      "inputMatrix": {
        "rows": 20,
        "columns": 31,
        "weights": {
          "0": 0.6473157405853271,
          "1": -0.6071715950965881,
          "2": -0.49461352825164795,
          "3": 0.301121324300766,
          "4": -0.2521910071372986,
          "5": -0.9780343770980835,
          "6": 1.4083223342895508,
          "7": 0.2812287509441376,
          "8": 0.08229468762874603,
          "9": 0.559428870677948,
          "10": -0.6679027676582336,
          "11": -0.2857290804386139,
          "12": 0.7695905566215515,
          "13": -0.8969853520393372,
          "14": 0.8296864032745361,
          "15": 0.4413280487060547,
          "16": -0.04186742752790451,
          "17": -0.0813901275396347,
          "18": -0.5395540595054626,
          "19": -0.08894664794206619,
          "20": 1.1545906066894531,
          "21": 0.4791201651096344,
          "22": -0.3717169463634491,
          "23": -0.026730477809906006,
          "24": -1.909030795097351,
          "25": -1.1775143146514893,
          "26": 0.974468469619751,
          "27": 1.7963204383850098,
          "28": 0.5558078289031982,
          "29": 0.16072800755500793,
          "30": -0.6193609237670898,
          "31": -0.2877093255519867,
          "32": -1.0511547327041626,
          "33": 0.8779544234275818,
          "34": 0.03979312628507614,
          "35": -1.8634214401245117,
          "36": -0.07744165509939194,
          "37": -1.9092973470687866,
          "38": -1.2895859479904175,
          "39": -2.081258535385132,
          "40": 1.0196690559387207,
          "41": -1.4619874954223633,
          "42": -0.005048610270023346,
          "43": -0.057630423456430435,
          "44": 0.22221414744853973,
          "45": 1.4466686248779297,
          "46": -0.6402096152305603,
          "47": 1.0545079708099365,
          "48": -0.2941654622554779,
          "49": -0.41235849261283875,
          "50": -0.3090689480304718,
          "51": -0.4373185336589813,
          "52": 0.7363582849502563,
          "53": -0.4698862135410309,
          "54": -1.0576894283294678,
          "55": 0.5944693684577942,
          "56": -1.292745590209961,
          "57": 0.22917917370796204,
          "58": -0.8180639147758484,
          "59": 0.19639398157596588,
          "60": 0.7502742409706116,
          "61": -0.4515498876571655,
          "62": 0.9432293772697449,
          "63": 0.13822965323925018,
          "64": 1.9356629848480225,
          "65": 0.9069344401359558,
          "66": -0.3342050313949585,
          "67": -0.05935640260577202,
          "68": 0.7099932432174683,
          "69": -0.3102163076400757,
          "70": 0.8297112584114075,
          "71": -0.35018429160118103,
          "72": 0.2693626880645752,
          "73": 0.10079851001501083,
          "74": -0.24745048582553864,
          "75": -0.5487355589866638,
          "76": 1.4122661352157593,
          "77": 0.6421747207641602,
          "78": -0.4748029112815857,
          "79": -0.09767388552427292,
          "80": -0.20857176184654236,
          "81": -1.4490338563919067,
          "82": 0.9227818846702576,
          "83": -0.005505036562681198,
          "84": -1.1388927698135376,
          "85": 0.09327679127454758,
          "86": -0.7764633297920227,
          "87": -1.2014364004135132,
          "88": -0.4466157853603363,
          "89": -0.3234862983226776,
          "90": -0.3588249385356903,
          "91": 1.645028829574585,
          "92": 0.1297348290681839,
          "93": -0.45573580265045166,
          "94": 1.236170768737793,
          "95": -0.18698498606681824,
          "96": -0.38057443499565125,
          "97": 1.0376354455947876,
          "98": 0.6333615183830261,
          "99": -1.106419563293457,
          "100": 1.090706706047058,
          "101": 0.542094349861145,
          "102": 0.14733649790287018,
          "103": 0.5213848352432251,
          "104": 0.00014475948410108685,
          "105": -0.14417193830013275,
          "106": 0.08894461393356323,
          "107": 0.3190363347530365,
          "108": 1.3921853303909302,
          "109": -0.6700818538665771,
          "110": -0.25460147857666016,
          "111": 0.2715681493282318,
          "112": -0.7355889678001404,
          "113": -0.06041444465517998,
          "114": -1.3204870223999023,
          "115": 0.19924741983413696,
          "116": 1.2578805685043335,
          "117": -0.2573671340942383,
          "118": 0.8688862323760986,
          "119": -1.6186559200286865,
          "120": 0.2128084897994995,
          "121": -1.4356317520141602,
          "122": 0.0445513091981411,
          "123": 1.3919939994812012,
          "124": -0.2310243397951126,
          "125": -0.6454062461853027,
          "126": -0.4650401473045349,
          "127": 0.21470032632350922,
          "128": -0.7874467372894287,
          "129": -0.9248899221420288,
          "130": -0.979268491268158,
          "131": -0.16251876950263977,
          "132": -0.8298362493515015,
          "133": 0.8307826519012451,
          "134": -0.5859203338623047,
          "135": -0.4111270308494568,
          "136": 0.8392017483711243,
          "137": 1.3566697835922241,
          "138": -1.378312349319458,
          "139": -0.759479284286499,
          "140": 0.956321120262146,
          "141": 0.021288925781846046,
          "142": 0.1664673238992691,
          "143": 1.5783103704452515,
          "144": 0.13493482768535614,
          "145": 0.6677999496459961,
          "146": 0.960270881652832,
          "147": -0.816402792930603,
          "148": 0.19448260962963104,
          "149": 0.6386981010437012,
          "150": 0.8914195895195007,
          "151": -0.1192583441734314,
          "152": 0.22395625710487366,
          "153": -1.2301547527313232,
          "154": -1.2540968656539917,
          "155": 0.498414546251297,
          "156": -0.9982312321662903,
          "157": 0.06007455289363861,
          "158": 0.7159274220466614,
          "159": -0.6890425682067871,
          "160": -1.4318455457687378,
          "161": -0.22052019834518433,
          "162": -1.236250400543213,
          "163": -1.181047797203064,
          "164": 0.46504896879196167,
          "165": -1.452245831489563,
          "166": -0.1334509700536728,
          "167": 0.3270777761936188,
          "168": 0.6633322238922119,
          "169": -0.4235721528530121,
          "170": -1.5264545679092407,
          "171": 1.6279314756393433,
          "172": 0.3269995450973511,
          "173": 0.03315878286957741,
          "174": 1.3236379623413086,
          "175": 0.5142885446548462,
          "176": 0.8527615070343018,
          "177": 0.24844522774219513,
          "178": -1.6646614074707031,
          "179": 0.7118411660194397,
          "180": -0.4084453880786896,
          "181": 0.9433296918869019,
          "182": -0.5428611636161804,
          "183": 0.6311089396476746,
          "184": -0.7797719836235046,
          "185": -1.4194508790969849,
          "186": 0.7991077303886414,
          "187": -0.25342050194740295,
          "188": 0.2177610546350479,
          "189": 0.3605327606201172,
          "190": -0.036091867834329605,
          "191": -0.029554007574915886,
          "192": -0.9403714537620544,
          "193": -0.1517377644777298,
          "194": 0.11757390946149826,
          "195": -1.711466908454895,
          "196": -0.3551090657711029,
          "197": 0.9112265110015869,
          "198": -0.3803885281085968,
          "199": -1.6236553192138672,
          "200": 0.21845455467700958,
          "201": -0.03671996295452118,
          "202": 0.34629398584365845,
          "203": 1.5454577207565308,
          "204": -2.3019800186157227,
          "205": 0.8061851263046265,
          "206": 1.176633596420288,
          "207": -0.006248406134545803,
          "208": -0.5158966183662415,
          "209": -0.0334039144217968,
          "210": 0.08970756083726883,
          "211": 0.2729940414428711,
          "212": 0.20040014386177063,
          "213": -2.986604690551758,
          "214": -0.16810332238674164,
          "215": -0.04014914110302925,
          "216": -0.22032755613327026,
          "217": 0.2574596703052521,
          "218": 0.12371056526899338,
          "219": 0.5319749712944031,
          "220": -1.3353887796401978,
          "221": 0.05956285819411278,
          "222": -0.3878468871116638,
          "223": 2.4699954986572266,
          "224": 0.3139379024505615,
          "225": 0.8735896348953247,
          "226": 1.0457584857940674,
          "227": 0.2983474135398865,
          "228": -0.7071272730827332,
          "229": -0.3975124657154083,
          "230": -0.4187815189361572,
          "231": 0.4719489812850952,
          "232": 0.17089596390724182,
          "233": 0.011161981150507927,
          "234": -0.916890561580658,
          "235": 0.8041662573814392,
          "236": -0.2101849466562271,
          "237": -0.8598014116287231,
          "238": 0.5515571236610413,
          "239": -0.10751430690288544,
          "240": -0.04216793179512024,
          "241": -0.3001362383365631,
          "242": -0.5239438414573669,
          "243": 0.0714358538389206,
          "244": 0.4607909619808197,
          "245": 0.22277382016181946,
          "246": 0.7084702849388123,
          "247": -0.004532167688012123,
          "248": 0.4161790907382965,
          "249": 1.1948939561843872,
          "250": 0.4669104516506195,
          "251": 1.3278446197509766,
          "252": 0.5172984004020691,
          "253": 0.7393972277641296,
          "254": -0.34680140018463135,
          "255": 0.9185013771057129,
          "256": 1.4997225999832153,
          "257": -0.3839547038078308,
          "258": 1.1148372888565063,
          "259": 0.7654630541801453,
          "260": -0.7447299957275391,
          "261": -0.2396642118692398,
          "262": -0.16367556154727936,
          "263": 0.30864715576171875,
          "264": -0.5839264392852783,
          "265": 1.4557148218154907,
          "266": -0.4712393879890442,
          "267": -0.41877931356430054,
          "268": 0.767684280872345,
          "269": -0.8895676732063293,
          "270": -0.03468351066112518,
          "271": 1.1107958555221558,
          "272": 1.2610201835632324,
          "273": 1.3032368421554565,
          "274": -1.9701259136199951,
          "275": -1.0654467344284058,
          "276": -1.349800705909729,
          "277": -0.5355421900749207,
          "278": 1.1352128982543945,
          "279": -0.16727221012115479,
          "280": -0.24044831097126007,
          "281": -0.47899818420410156,
          "282": 0.5040160417556763,
          "283": -0.20430918037891388,
          "284": 1.2032705545425415,
          "285": 1.52405846118927,
          "286": 0.024113675579428673,
          "287": 0.5714721083641052,
          "288": 1.8660284280776978,
          "289": -0.6431507468223572,
          "290": -0.5286300182342529,
          "291": 1.4848482608795166,
          "292": 0.8919456601142883,
          "293": -2.237060308456421,
          "294": 0.7891290783882141,
          "295": 0.26513782143592834,
          "296": 0.4677353799343109,
          "297": 0.5735298991203308,
          "298": -0.09072388708591461,
          "299": 0.5879433155059814,
          "300": -0.11980418115854263,
          "301": 2.202336311340332,
          "302": -0.48533761501312256,
          "303": -0.18464334309101105,
          "304": -0.12370546162128448,
          "305": 0.8106203079223633,
          "306": 1.9770475625991821,
          "307": 0.41473037004470825,
          "308": -1.8062225580215454,
          "309": 1.4548747539520264,
          "310": 0.8788089752197266,
          "311": 0.4864838123321533,
          "312": 1.846846103668213,
          "313": 0.34356796741485596,
          "314": 0.16153675317764282,
          "315": -0.2036450058221817,
          "316": -1.0038321018218994,
          "317": 0.338439404964447,
          "318": 0.12744192779064178,
          "319": 0.3812909424304962,
          "320": -0.27251991629600525,
          "321": -0.07352928072214127,
          "322": -0.8127005100250244,
          "323": -0.6934165954589844,
          "324": 1.8136149644851685,
          "325": -0.2341262549161911,
          "326": 0.06646155565977097,
          "327": 0.33934783935546875,
          "328": 0.03147073835134506,
          "329": -0.17142534255981445,
          "330": -0.8476603031158447,
          "331": 0.07259973138570786,
          "332": -1.1432238817214966,
          "333": -0.32972902059555054,
          "334": 0.5540168285369873,
          "335": -0.5279297828674316,
          "336": -0.31708014011383057,
          "337": -1.3459721803665161,
          "338": -0.1834302544593811,
          "339": 1.5587918758392334,
          "340": 0.062470994889736176,
          "341": 0.13168732821941376,
          "342": -0.45508819818496704,
          "343": -0.25268158316612244,
          "344": -0.8902088403701782,
          "345": -0.5199735760688782,
          "346": -0.7441443204879761,
          "347": 2.367919921875,
          "348": -0.3693194091320038,
          "349": -0.5196039080619812,
          "350": 0.9581233859062195,
          "351": -0.3681517243385315,
          "352": -1.2368693351745605,
          "353": 0.8047481179237366,
          "354": -0.38950422406196594,
          "355": -0.08757920563220978,
          "356": -0.25662675499916077,
          "357": 0.3728560507297516,
          "358": -1.2149503231048584,
          "359": 0.9760218858718872,
          "360": 0.5454052090644836,
          "361": -0.3052181899547577,
          "362": 0.5832738876342773,
          "363": 0.6518166661262512,
          "364": -0.49149221181869507,
          "365": -0.3490901589393616,
          "366": -1.5015777349472046,
          "367": 0.8422363996505737,
          "368": 1.347465991973877,
          "369": 0.7909409999847412,
          "370": -0.28878331184387207,
          "371": -0.67534339427948,
          "372": 1.7986159324645996,
          "373": -1.5476223230361938,
          "374": 1.4166314601898193,
          "375": 0.15909865498542786,
          "376": -1.2865582704544067,
          "377": 0.6055437922477722,
          "378": -0.7528592944145203,
          "379": -0.47639504075050354,
          "380": -0.6552283763885498,
          "381": 0.7977709770202637,
          "382": -1.422523856163025,
          "383": -0.19510570168495178,
          "384": 1.202676773071289,
          "385": -1.5627906322479248,
          "386": 1.0316643714904785,
          "387": 0.0035441371146589518,
          "388": 0.619732677936554,
          "389": -0.08626024425029755,
          "390": -1.1886998414993286,
          "391": -0.36196309328079224,
          "392": 0.776271402835846,
          "393": 0.8533403873443604,
          "394": -1.5079288482666016,
          "395": -0.33705955743789673,
          "396": -0.5631594061851501,
          "397": -2.110435724258423,
          "398": 1.1985902786254883,
          "399": 0.02329271472990513,
          "400": 0.480127215385437,
          "401": 1.2098428010940552,
          "402": 0.07650947570800781,
          "403": 1.1796245574951172,
          "404": 0.07477971166372299,
          "405": 0.6538501381874084,
          "406": 0.35265839099884033,
          "407": 0.37568023800849915,
          "408": -0.6531361937522888,
          "409": -0.5234449505805969,
          "410": -0.05291511490941048,
          "411": 0.14329873025417328,
          "412": -0.307123601436615,
          "413": -0.07589132338762283,
          "414": 0.6509537696838379,
          "415": 0.6882155537605286,
          "416": -1.167441964149475,
          "417": 0.3776107132434845,
          "418": -0.2781667411327362,
          "419": -0.048392973840236664,
          "420": 1.3495408296585083,
          "421": -1.2712113857269287,
          "422": 0.4291209876537323,
          "423": 2.1300790309906006,
          "424": -0.40056779980659485,
          "425": -0.9738689661026001,
          "426": -0.3987513482570648,
          "427": 0.4600459337234497,
          "428": 0.22382383048534393,
          "429": 0.10519765317440033,
          "430": -1.3182463645935059,
          "431": -0.5098401308059692,
          "432": 0.5628857612609863,
          "433": -0.7276531457901001,
          "434": 1.2662793397903442,
          "435": -1.3494027853012085,
          "436": 0.6896335482597351,
          "437": 1.3775911331176758,
          "438": -0.6940296292304993,
          "439": -1.2003536224365234,
          "440": 0.6201460957527161,
          "441": -1.1210143566131592,
          "442": 0.543119490146637,
          "443": -0.09646186977624893,
          "444": -0.14641374349594116,
          "445": 0.6976729035377502,
          "446": 0.5172823071479797,
          "447": -0.5681718587875366,
          "448": 0.13228978216648102,
          "449": -0.4508015513420105,
          "450": 0.6423360705375671,
          "451": 1.201790452003479,
          "452": -1.108579397201538,
          "453": 0.461740106344223,
          "454": 1.7247989177703857,
          "455": 0.8337334394454956,
          "456": -0.15086041390895844,
          "457": -0.5926291346549988,
          "458": -0.6683573126792908,
          "459": -1.1059190034866333,
          "460": 1.170166254043579,
          "461": -0.676262617111206,
          "462": 0.4747435748577118,
          "463": -0.36859408020973206,
          "464": -1.0502684116363525,
          "465": 0.5350074172019958,
          "466": -1.0902612209320068,
          "467": -0.5177741050720215,
          "468": -0.27407050132751465,
          "469": 0.0031821096781641245,
          "470": -0.8195862770080566,
          "471": 1.3670222759246826,
          "472": -1.8048959970474243,
          "473": -0.4632582366466522,
          "474": -0.36355161666870117,
          "475": 0.3836933672428131,
          "476": 0.3981947600841522,
          "477": 0.2791360914707184,
          "478": -1.5219510793685913,
          "479": 0.44127804040908813,
          "480": -1.272740364074707,
          "481": 0.7639018297195435,
          "482": 0.04420353099703789,
          "483": -0.5591915845870972,
          "484": 0.256862610578537,
          "485": 0.7452499866485596,
          "486": 0.6288502812385559,
          "487": -1.1470838785171509,
          "488": -0.839287281036377,
          "489": 0.2478513866662979,
          "490": 0.20650920271873474,
          "491": 0.8705781102180481,
          "492": -0.0171767957508564,
          "493": 2.208707094192505,
          "494": 0.6881309151649475,
          "495": -0.07211244851350784,
          "496": -0.5137982964515686,
          "497": 0.36975160241127014,
          "498": -0.523358941078186,
          "499": 0.07966653257608414,
          "500": 0.22039957344532013,
          "501": 1.5339709520339966,
          "502": -1.4134960174560547,
          "503": 1.1705796718597412,
          "504": 0.26131364703178406,
          "505": -0.6259765028953552,
          "506": 0.24892425537109375,
          "507": 0.23631377518177032,
          "508": 0.9206728339195251,
          "509": -0.353089302778244,
          "510": 0.4974800646305084,
          "511": 0.988872766494751,
          "512": -1.0393744707107544,
          "513": -0.14928759634494781,
          "514": -0.17272718250751495,
          "515": -0.12585358321666718,
          "516": -0.666515588760376,
          "517": -0.43493136763572693,
          "518": -0.44341516494750977,
          "519": 0.7306011915206909,
          "520": -0.5353260040283203,
          "521": 0.8787152767181396,
          "522": -0.3990810513496399,
          "523": -0.6724157929420471,
          "524": -0.3222232162952423,
          "525": 0.3973070979118347,
          "526": 0.9388889074325562,
          "527": -0.043812770396471024,
          "528": -0.6306014657020569,
          "529": -0.04065632075071335,
          "530": -0.21196115016937256,
          "531": -0.8848060965538025,
          "532": -1.000408411026001,
          "533": 0.6499840021133423,
          "534": -0.8774962425231934,
          "535": -0.18425129354000092,
          "536": 0.5433962941169739,
          "537": -0.6139028072357178,
          "538": -1.6179221868515015,
          "539": 0.6574397087097168,
          "540": 0.44429466128349304,
          "541": -0.17894618213176727,
          "542": -0.6408195495605469,
          "543": 0.504059374332428,
          "544": -1.1209081411361694,
          "545": 0.9090782999992371,
          "546": -0.6635369062423706,
          "547": -0.5400623679161072,
          "548": 0.8909581899642944,
          "549": 0.30221548676490784,
          "550": -0.5266515016555786,
          "551": 0.4067419171333313,
          "552": -0.7358285784721375,
          "553": 0.990666925907135,
          "554": 1.388315200805664,
          "555": 0.5982536673545837,
          "556": -0.23089368641376495,
          "557": -0.9235914945602417,
          "558": -1.6217840909957886,
          "559": 0.4449114501476288,
          "560": -1.6950618028640747,
          "561": -0.5658978223800659,
          "562": 1.0874935388565063,
          "563": 0.45286017656326294,
          "564": -0.685511589050293,
          "565": 0.2170000672340393,
          "566": -0.9561665058135986,
          "567": -0.5836282968521118,
          "568": 0.4023081660270691,
          "569": 0.25126174092292786,
          "570": -0.282056599855423,
          "571": 0.7825567722320557,
          "572": -2.1993231773376465,
          "573": -0.1254291534423828,
          "574": -0.4858666658401489,
          "575": -0.2586056888103485,
          "576": 0.8352727293968201,
          "577": 0.9373762011528015,
          "578": -1.0068796873092651,
          "579": -0.8424447178840637,
          "580": 1.8740248680114746,
          "581": -0.7023836374282837,
          "582": 1.1511216163635254,
          "583": 0.677529513835907,
          "584": -0.005745427682995796,
          "585": -0.251094251871109,
          "586": -0.6865032315254211,
          "587": -2.086366891860962,
          "588": -0.20522154867649078,
          "589": -0.38054579496383667,
          "590": 0.3243595063686371,
          "591": -0.5232323408126831,
          "592": -0.13068142533302307,
          "593": -0.4040006995201111,
          "594": 0.37318944931030273,
          "595": -1.6250056028366089,
          "596": -0.11410773545503616,
          "597": -0.08631353825330734,
          "598": -0.4197181463241577,
          "599": 0.3270672559738159,
          "600": -0.22228145599365234,
          "601": 0.6208276748657227,
          "602": -0.4847188889980316,
          "603": 0.3868933618068695,
          "604": 0.15511630475521088,
          "605": 0.02144131436944008,
          "606": -0.6499171257019043,
          "607": 1.0108003616333008,
          "608": -0.0965944454073906,
          "609": -0.8446739315986633,
          "610": -0.19047608971595764,
          "611": 0.5490890741348267,
          "612": 0.170927032828331,
          "613": 1.6517781019210815,
          "614": 0.7246477603912354,
          "615": -0.31607189774513245,
          "616": 0.3713987171649933,
          "617": 0.05034659057855606,
          "618": -0.7607467174530029,
          "619": 0.7963008880615234
        }
      },
      "inputHidden": {
        "rows": 20,
        "columns": 20,
        "weights": {
          "0": -0.4890129864215851,
          "1": 0.3197225332260132,
          "2": 0.3497689366340637,
          "3": 0.7967677116394043,
          "4": -1.6010016202926636,
          "5": -1.1261552572250366,
          "6": -0.9669129252433777,
          "7": -0.8632809519767761,
          "8": 0.7398306131362915,
          "9": 0.5925611257553101,
          "10": -0.562833309173584,
          "11": -1.3408432006835938,
          "12": 0.4481433928012848,
          "13": -1.1585029363632202,
          "14": -0.877418577671051,
          "15": 1.7533892393112183,
          "16": 0.3406911790370941,
          "17": 0.43442192673683167,
          "18": 0.35449838638305664,
          "19": -0.9821217656135559,
          "20": 0.18317091464996338,
          "21": -1.625024437904358,
          "22": -0.8877076506614685,
          "23": -1.256691813468933,
          "24": -1.2784459590911865,
          "25": -0.5622445344924927,
          "26": 0.47323933243751526,
          "27": -0.5989544987678528,
          "28": -1.52476966381073,
          "29": 0.6148300766944885,
          "30": -0.4044239819049835,
          "31": -0.21713648736476898,
          "32": 0.1298840343952179,
          "33": -0.14766639471054077,
          "34": 1.346130132675171,
          "35": 0.11755941063165665,
          "36": 0.7905979156494141,
          "37": -0.31939226388931274,
          "38": 0.2793256640434265,
          "39": -0.16484983265399933,
          "40": -1.8479957580566406,
          "41": 1.7694191932678223,
          "42": 1.6282614469528198,
          "43": 1.1151686906814575,
          "44": -2.078409433364868,
          "45": -3.289348840713501,
          "46": -1.1350740194320679,
          "47": -1.70455801486969,
          "48": 1.1021990776062012,
          "49": -0.9648491144180298,
          "50": -2.012321710586548,
          "51": -1.9979465007781982,
          "52": -0.13509967923164368,
          "53": 2.102590799331665,
          "54": 0.02015654370188713,
          "55": 1.6835912466049194,
          "56": -0.05525168776512146,
          "57": 2.362649440765381,
          "58": -2.0883829593658447,
          "59": 0.10801980644464493,
          "60": 0.39505743980407715,
          "61": 0.2685486376285553,
          "62": -0.6681593656539917,
          "63": -0.5152255892753601,
          "64": 0.14422355592250824,
          "65": -0.48229408264160156,
          "66": 0.32065948843955994,
          "67": -0.10420239716768265,
          "68": -0.41442593932151794,
          "69": -0.4003671109676361,
          "70": 0.10024922341108322,
          "71": -0.3338955044746399,
          "72": 0.2837395668029785,
          "73": -0.3487425744533539,
          "74": 0.8850801587104797,
          "75": -0.08555493503808975,
          "76": -0.03339698165655136,
          "77": 0.29982152581214905,
          "78": -0.1469726264476776,
          "79": 0.43724673986434937,
          "80": 0.6022198796272278,
          "81": -0.8028433322906494,
          "82": 0.005693385377526283,
          "83": -0.8618404865264893,
          "84": 1.630413293838501,
          "85": 1.1047719717025757,
          "86": -0.6562422513961792,
          "87": 0.334481805562973,
          "88": -1.2686010599136353,
          "89": 0.5300810933113098,
          "90": 0.7025949358940125,
          "91": 0.06773649901151657,
          "92": -0.2530669569969177,
          "93": -0.538663387298584,
          "94": 0.4352206885814667,
          "95": -0.3046276569366455,
          "96": -0.22739730775356293,
          "97": -0.3742949962615967,
          "98": 0.419228732585907,
          "99": 1.0131560564041138,
          "100": -0.06549695879220963,
          "101": -0.0034735826775431633,
          "102": 0.5152769088745117,
          "103": 1.187221646308899,
          "104": -0.31417912244796753,
          "105": -0.4864884912967682,
          "106": -0.3775581121444702,
          "107": -0.3141450881958008,
          "108": 0.9534134864807129,
          "109": -0.6357051134109497,
          "110": -0.08354100584983826,
          "111": -0.44431889057159424,
          "112": 0.33267340064048767,
          "113": -0.4822147786617279,
          "114": -1.3119730949401855,
          "115": 0.5085774660110474,
          "116": -0.06494714319705963,
          "117": 0.26499855518341064,
          "118": -0.007789950352162123,
          "119": 0.3860575556755066,
          "120": -0.08238675445318222,
          "121": -0.22657835483551025,
          "122": -0.7963657379150391,
          "123": -0.2328225076198578,
          "124": 0.05900726094841957,
          "125": 0.29620954394340515,
          "126": 1.0036156177520752,
          "127": 0.36656829714775085,
          "128": -1.1914253234863281,
          "129": -0.7152028679847717,
          "130": 0.1438279151916504,
          "131": 0.008108027279376984,
          "132": -0.2906738519668579,
          "133": 0.13828669488430023,
          "134": -0.3953951895236969,
          "135": -0.27762970328330994,
          "136": 0.4090195596218109,
          "137": -0.2947767972946167,
          "138": 0.09396397322416306,
          "139": 0.17556364834308624,
          "140": -1.6584343910217285,
          "141": -0.8521844148635864,
          "142": 2.5677602291107178,
          "143": 1.2357673645019531,
          "144": -3.4404897689819336,
          "145": -1.5769156217575073,
          "146": -0.2517499029636383,
          "147": -2.1523826122283936,
          "148": 1.2854021787643433,
          "149": 0.13307182490825653,
          "150": 1.5836259126663208,
          "151": -2.407935619354248,
          "152": -1.0844190120697021,
          "153": 0.03383931890130043,
          "154": 0.944050133228302,
          "155": 0.5982214212417603,
          "156": 0.29662463068962097,
          "157": 1.4276684522628784,
          "158": -1.5552754402160645,
          "159": -1.770557165145874,
          "160": -0.773566484451294,
          "161": 0.09700359404087067,
          "162": -0.014043000526726246,
          "163": 0.3106865882873535,
          "164": -0.2709752321243286,
          "165": -0.6976685523986816,
          "166": -0.33540043234825134,
          "167": -0.5074023008346558,
          "168": -0.390093058347702,
          "169": 0.24460655450820923,
          "170": 0.11427272856235504,
          "171": -0.8454724550247192,
          "172": -0.23764093220233917,
          "173": 0.01153239794075489,
          "174": 0.4533788859844208,
          "175": 1.2178404331207275,
          "176": 0.699899435043335,
          "177": 1.656245231628418,
          "178": -0.06568685173988342,
          "179": -0.16677828133106232,
          "180": 1.8863096237182617,
          "181": 0.2564835846424103,
          "182": 0.40673381090164185,
          "183": 0.3352877199649811,
          "184": 0.012457381002604961,
          "185": 0.6526307463645935,
          "186": 0.4895990192890167,
          "187": 0.9312633872032166,
          "188": 1.7316837310791016,
          "189": -0.11641518771648407,
          "190": -0.010558134876191616,
          "191": 0.2409210503101349,
          "192": 0.036287013441324234,
          "193": -0.7708986401557922,
          "194": -1.3003432750701904,
          "195": -0.2766173183917999,
          "196": -1.8628772497177124,
          "197": -0.5050475597381592,
          "198": -1.169809103012085,
          "199": -0.731107234954834,
          "200": 1.2906357049942017,
          "201": -1.1174681186676025,
          "202": -0.5113741755485535,
          "203": -0.6119028329849243,
          "204": 0.8179440498352051,
          "205": 1.4419941902160645,
          "206": 1.3139054775238037,
          "207": 1.1918222904205322,
          "208": 0.0972655788064003,
          "209": 0.46340981125831604,
          "210": 1.4184036254882812,
          "211": 0.6846052408218384,
          "212": -1.4126744270324707,
          "213": 1.0266660451889038,
          "214": -0.08667590469121933,
          "215": -1.7109333276748657,
          "216": 1.5924257040023804,
          "217": -0.36718133091926575,
          "218": 0.6447935700416565,
          "219": 1.1562919616699219,
          "220": 1.6767494678497314,
          "221": 0.1164858490228653,
          "222": 1.4443761110305786,
          "223": 2.3901708126068115,
          "224": 0.7366998791694641,
          "225": 1.1285457611083984,
          "226": -1.7999155521392822,
          "227": 0.8932893872261047,
          "228": 1.8199936151504517,
          "229": -0.0834711566567421,
          "230": 0.11729259043931961,
          "231": 1.3304463624954224,
          "232": 1.040969967842102,
          "233": -0.3878362774848938,
          "234": -1.0301414728164673,
          "235": -0.484937846660614,
          "236": 0.4777255058288574,
          "237": -0.9319925904273987,
          "238": 0.19277900457382202,
          "239": -0.15337173640727997,
          "240": 0.5608598589897156,
          "241": -0.6035520434379578,
          "242": -0.5673574805259705,
          "243": -0.6439771056175232,
          "244": 1.655147671699524,
          "245": 1.1228793859481812,
          "246": 1.582173228263855,
          "247": 0.6225499510765076,
          "248": -0.2745068669319153,
          "249": -1.1789565086364746,
          "250": 1.410514235496521,
          "251": 0.7229070067405701,
          "252": -0.4564075171947479,
          "253": 1.0513176918029785,
          "254": -0.5170932412147522,
          "255": -0.25675708055496216,
          "256": 0.7854769229888916,
          "257": 0.5308537483215332,
          "258": -0.15653502941131592,
          "259": 0.16740204393863678,
          "260": 0.041664429008960724,
          "261": -0.3320406973361969,
          "262": -1.3497124910354614,
          "263": -0.6451090574264526,
          "264": 0.5003812313079834,
          "265": 0.14478424191474915,
          "266": 1.3032642602920532,
          "267": 0.5155575275421143,
          "268": -0.8041518330574036,
          "269": -0.2836959958076477,
          "270": -1.5018150806427002,
          "271": 0.6752234101295471,
          "272": -0.5215880870819092,
          "273": 1.1129673719406128,
          "274": -2.6624977588653564,
          "275": -0.5467963218688965,
          "276": -0.2278663069009781,
          "277": -0.5989956259727478,
          "278": -0.1775241196155548,
          "279": 0.866890013217926,
          "280": -1.1993190050125122,
          "281": -2.1357648372650146,
          "282": 2.394481658935547,
          "283": 2.7780725955963135,
          "284": -0.5167398452758789,
          "285": -1.321953296661377,
          "286": 0.8230023980140686,
          "287": 0.3537553548812866,
          "288": 0.909618079662323,
          "289": -1.132662296295166,
          "290": 1.1954717636108398,
          "291": -0.10180496424436569,
          "292": -0.5074239373207092,
          "293": -1.0626558065414429,
          "294": 2.193006992340088,
          "295": 0.6005648374557495,
          "296": 1.6156617403030396,
          "297": 0.32816433906555176,
          "298": 0.7662655115127563,
          "299": 0.207255020737648,
          "300": -0.5276519060134888,
          "301": 0.7964977622032166,
          "302": 1.357527732849121,
          "303": 1.9154325723648071,
          "304": -0.019336532801389694,
          "305": -0.5150114297866821,
          "306": -0.5432419776916504,
          "307": 0.204631969332695,
          "308": 2.4724795818328857,
          "309": -1.1070358753204346,
          "310": -0.33489078283309937,
          "311": -0.09080415219068527,
          "312": 0.7741183638572693,
          "313": -0.5856303572654724,
          "314": -0.6514756679534912,
          "315": 0.09178752452135086,
          "316": -0.8871620297431946,
          "317": -0.22977660596370697,
          "318": -0.17795564234256744,
          "319": -0.568233072757721,
          "320": 1.8787367343902588,
          "321": -2.1521871089935303,
          "322": -0.6270450353622437,
          "323": -1.295733094215393,
          "324": 1.125727891921997,
          "325": 2.8782331943511963,
          "326": 1.3212701082229614,
          "327": 3.2928237915039062,
          "328": -1.3436647653579712,
          "329": -0.2936933934688568,
          "330": 1.4763845205307007,
          "331": 1.2028475999832153,
          "332": -0.8511202931404114,
          "333": -0.5454998016357422,
          "334": 0.9830514192581177,
          "335": -1.2562803030014038,
          "336": 0.6275341510772705,
          "337": -2.1018409729003906,
          "338": 0.28318408131599426,
          "339": 0.5122365355491638,
          "340": -0.32726186513900757,
          "341": 1.844679355621338,
          "342": 0.48078644275665283,
          "343": -0.18678680062294006,
          "344": -0.2161775529384613,
          "345": -1.1318248510360718,
          "346": -0.8281826376914978,
          "347": -1.0811669826507568,
          "348": -0.7231578826904297,
          "349": -1.3731403350830078,
          "350": -0.6319847702980042,
          "351": -0.539340615272522,
          "352": 0.6128847599029541,
          "353": -1.0350990295410156,
          "354": -0.5673524141311646,
          "355": 1.1796733140945435,
          "356": -0.4605846405029297,
          "357": 1.7047146558761597,
          "358": -1.0474032163619995,
          "359": 0.3103068768978119,
          "360": -0.25920307636260986,
          "361": 1.2189401388168335,
          "362": -1.7563053369522095,
          "363": -2.004119396209717,
          "364": 1.3744356632232666,
          "365": 0.9104543924331665,
          "366": -1.1162251234054565,
          "367": 0.619989275932312,
          "368": -1.6375484466552734,
          "369": -0.4390164017677307,
          "370": 0.04011962562799454,
          "371": 0.10985303670167923,
          "372": 0.3051522970199585,
          "373": 0.21747715771198273,
          "374": -0.8383067846298218,
          "375": -0.24718278646469116,
          "376": -0.6639413237571716,
          "377": -0.5139334201812744,
          "378": -0.6702232956886292,
          "379": -0.6028562784194946,
          "380": -0.6077271103858948,
          "381": -2.7471415996551514,
          "382": -1.21076238155365,
          "383": -1.1462503671646118,
          "384": 1.446092963218689,
          "385": 1.8161323070526123,
          "386": 2.9573543071746826,
          "387": 0.9819302558898926,
          "388": -0.4960511028766632,
          "389": 0.4981405735015869,
          "390": 0.009373899549245834,
          "391": -0.09947595745325089,
          "392": -1.2014985084533691,
          "393": 0.9676464200019836,
          "394": 0.31735390424728394,
          "395": -1.3373051881790161,
          "396": 2.5903947353363037,
          "397": -1.1527351140975952,
          "398": 1.649896502494812,
          "399": 1.7762095928192139
        }
      },
      "inputBias": {
        "rows": 20,
        "columns": 1,
        "weights": {
          "0": -0.3123539984226227,
          "1": -0.555597722530365,
          "2": -0.1886957585811615,
          "3": 0.30970972776412964,
          "4": -0.8094865083694458,
          "5": 0.19863246381282806,
          "6": -0.9333433508872986,
          "7": -0.43857812881469727,
          "8": 0.09299920499324799,
          "9": 0.8794331550598145,
          "10": -0.7172660231590271,
          "11": -0.16672907769680023,
          "12": -0.12752294540405273,
          "13": -0.6380051970481873,
          "14": -0.6935141086578369,
          "15": -0.2883511185646057,
          "16": -0.23764678835868835,
          "17": -0.5348536372184753,
          "18": -0.15771272778511047,
          "19": -0.2751353681087494
        }
      },
      "forgetMatrix": {
        "rows": 20,
        "columns": 31,
        "weights": {
          "0": -0.36307293176651,
          "1": -0.060666318982839584,
          "2": -0.38974711298942566,
          "3": -0.6974704265594482,
          "4": -0.16428282856941223,
          "5": 0.24818934500217438,
          "6": 1.260343074798584,
          "7": 0.11318069696426392,
          "8": 0.6407899260520935,
          "9": 0.989399254322052,
          "10": -0.17969751358032227,
          "11": -0.8157552480697632,
          "12": 1.3643155097961426,
          "13": 0.459369957447052,
          "14": -0.5191261768341064,
          "15": 0.46939799189567566,
          "16": -0.21414706110954285,
          "17": -1.0594202280044556,
          "18": 0.9149516820907593,
          "19": -0.9752722382545471,
          "20": 0.0665183886885643,
          "21": 0.08128459006547928,
          "22": 1.1578134298324585,
          "23": 0.24570724368095398,
          "24": -0.5192491412162781,
          "25": 0.26679086685180664,
          "26": 0.09152183681726456,
          "27": 2.4644899368286133,
          "28": 0.03403211012482643,
          "29": -0.37519052624702454,
          "30": 0.7587341666221619,
          "31": -0.2136336714029312,
          "32": 0.4469608962535858,
          "33": -0.7358009219169617,
          "34": -0.9927777647972107,
          "35": 0.4960255026817322,
          "36": 0.6127374172210693,
          "37": -0.0022577533964067698,
          "38": -0.044464536011219025,
          "39": 0.3437100648880005,
          "40": -0.13233770430088043,
          "41": 0.5420365333557129,
          "42": 0.08763322979211807,
          "43": 0.03898492082953453,
          "44": 0.49848684668540955,
          "45": -1.024976134300232,
          "46": 0.16205421090126038,
          "47": -0.22618438303470612,
          "48": -0.628383994102478,
          "49": 1.1226437091827393,
          "50": 0.2626042068004608,
          "51": -1.233900785446167,
          "52": -0.39555707573890686,
          "53": 0.33262762427330017,
          "54": 0.08684729784727097,
          "55": 1.0073142051696777,
          "56": 0.8099421262741089,
          "57": -0.29447516798973083,
          "58": 0.19409288465976715,
          "59": -0.184623584151268,
          "60": -0.38478830456733704,
          "61": 0.33184611797332764,
          "62": -0.5086115598678589,
          "63": 0.4415541887283325,
          "64": -2.020003080368042,
          "65": -1.6927963495254517,
          "66": -0.03904762119054794,
          "67": 0.9570951461791992,
          "68": -0.33245301246643066,
          "69": 0.8958137035369873,
          "70": -0.6208356022834778,
          "71": -0.2851719856262207,
          "72": 1.2133663892745972,
          "73": -0.8107540011405945,
          "74": 0.783223569393158,
          "75": 0.04915742576122284,
          "76": -0.8340595960617065,
          "77": 0.3698663115501404,
          "78": -0.18175069987773895,
          "79": -2.0041894912719727,
          "80": 0.933863639831543,
          "81": 0.8620060086250305,
          "82": -1.8124529123306274,
          "83": -0.1373223066329956,
          "84": -0.7761485576629639,
          "85": 0.551605761051178,
          "86": -0.34633493423461914,
          "87": 1.4472206830978394,
          "88": 0.574729323387146,
          "89": 1.3902091979980469,
          "90": 0.07594982534646988,
          "91": -0.8794435262680054,
          "92": 0.3771163523197174,
          "93": -0.10883419215679169,
          "94": 1.1260647773742676,
          "95": 0.3354058265686035,
          "96": 0.11415612697601318,
          "97": 1.216808795928955,
          "98": 1.7412781715393066,
          "99": -0.8557602763175964,
          "100": 1.2125548124313354,
          "101": 0.46635398268699646,
          "102": -0.3087019920349121,
          "103": -0.028197018429636955,
          "104": 0.6770179271697998,
          "105": -0.21715593338012695,
          "106": 0.4576610326766968,
          "107": 0.5978259444236755,
          "108": 1.8923612833023071,
          "109": -1.0205204486846924,
          "110": 0.519296407699585,
          "111": -0.11744290590286255,
          "112": -0.21884740889072418,
          "113": -0.09846213459968567,
          "114": -1.181855320930481,
          "115": 0.09002760797739029,
          "116": 0.8624848127365112,
          "117": 0.043679434806108475,
          "118": 0.021596301347017288,
          "119": -1.004313588142395,
          "120": -0.5308817625045776,
          "121": -1.2036687135696411,
          "122": 0.37452641129493713,
          "123": 1.077693223953247,
          "124": -0.9437737464904785,
          "125": 1.0118690729141235,
          "126": -0.6746901273727417,
          "127": -0.9750397801399231,
          "128": 0.4910315275192261,
          "129": 1.2451688051223755,
          "130": -0.5299065709114075,
          "131": 0.6041935086250305,
          "132": 1.0040714740753174,
          "133": -0.9167951345443726,
          "134": 1.2001705169677734,
          "135": 0.22833643853664398,
          "136": 0.0709567666053772,
          "137": -0.7205510139465332,
          "138": 0.7879573702812195,
          "139": 1.0761667490005493,
          "140": -0.9947494268417358,
          "141": -0.1167365163564682,
          "142": 0.7203602194786072,
          "143": -0.9620519280433655,
          "144": -0.7858378291130066,
          "145": -1.210920810699463,
          "146": -0.13302916288375854,
          "147": 1.1749666929244995,
          "148": 0.9234327077865601,
          "149": 0.9908391237258911,
          "150": -1.1750901937484741,
          "151": -0.029670510441064835,
          "152": -0.8021636605262756,
          "153": 0.334689736366272,
          "154": 1.5747162103652954,
          "155": -0.9891642928123474,
          "156": 0.05366407707333565,
          "157": -0.7770503759384155,
          "158": 0.7578012943267822,
          "159": -0.9387373328208923,
          "160": 0.13251040875911713,
          "161": -0.94603031873703,
          "162": -0.05335428938269615,
          "163": -0.08637743443250656,
          "164": 1.1004719734191895,
          "165": -0.21474216878414154,
          "166": -1.0795706510543823,
          "167": 1.1799606084823608,
          "168": -0.34573909640312195,
          "169": -1.7850768566131592,
          "170": 0.21258312463760376,
          "171": 0.046840690076351166,
          "172": -1.1007986068725586,
          "173": 0.5747592449188232,
          "174": -0.23400132358074188,
          "175": -0.06371193379163742,
          "176": -0.07912387698888779,
          "177": 2.567203998565674,
          "178": 0.0010223696008324623,
          "179": 0.8171209692955017,
          "180": 0.33283108472824097,
          "181": -0.21542073786258698,
          "182": 1.2073994874954224,
          "183": -0.2920350432395935,
          "184": -1.9450619220733643,
          "185": 0.6435667872428894,
          "186": -0.3740867078304291,
          "187": 0.9805355072021484,
          "188": -0.5944739580154419,
          "189": -0.651995837688446,
          "190": 1.254745602607727,
          "191": 0.7742086052894592,
          "192": -0.2644725739955902,
          "193": 0.6212393045425415,
          "194": 1.1793562173843384,
          "195": -0.5864265561103821,
          "196": 1.737839698791504,
          "197": 0.8292098641395569,
          "198": 0.18954728543758392,
          "199": -0.46923184394836426,
          "200": -0.16104818880558014,
          "201": 0.8639706969261169,
          "202": -1.2903649806976318,
          "203": -0.10062765330076218,
          "204": -0.09244031459093094,
          "205": -0.487136572599411,
          "206": 0.18068726360797882,
          "207": -0.675573468208313,
          "208": -0.13766072690486908,
          "209": 1.131150722503662,
          "210": -0.8103246688842773,
          "211": 0.9692586660385132,
          "212": -0.8189671635627747,
          "213": 0.36845293641090393,
          "214": -0.44805094599723816,
          "215": 0.27854663133621216,
          "216": 1.0696221590042114,
          "217": -0.9291573762893677,
          "218": 0.5141996741294861,
          "219": -0.0867825597524643,
          "220": -0.6693123579025269,
          "221": 0.46672534942626953,
          "222": 1.1890605688095093,
          "223": 0.10552070289850235,
          "224": 1.4661836624145508,
          "225": 1.2910124063491821,
          "226": 0.10849634557962418,
          "227": 0.06879094243049622,
          "228": -0.40118706226348877,
          "229": 0.45487895607948303,
          "230": -1.1745291948318481,
          "231": 0.4922087490558624,
          "232": 1.9528839588165283,
          "233": -1.3720848560333252,
          "234": -0.029661258682608604,
          "235": -0.20704492926597595,
          "236": -1.3806449174880981,
          "237": 0.14532619714736938,
          "238": -0.4459327459335327,
          "239": -0.5325105786323547,
          "240": 1.7220858335494995,
          "241": -0.5757001042366028,
          "242": 0.5111839175224304,
          "243": -0.9306082725524902,
          "244": 0.4619930684566498,
          "245": -0.9663344025611877,
          "246": 0.915913462638855,
          "247": 2.008939504623413,
          "248": -0.016048293560743332,
          "249": -0.017303215339779854,
          "250": -0.0895753800868988,
          "251": -0.8799176812171936,
          "252": 0.2182934284210205,
          "253": 1.5955030918121338,
          "254": 0.6773593425750732,
          "255": -0.05061139911413193,
          "256": 1.2170748710632324,
          "257": -0.1693480908870697,
          "258": 0.38329416513442993,
          "259": 0.16769737005233765,
          "260": 0.7055607438087463,
          "261": 0.28794175386428833,
          "262": -0.5363934636116028,
          "263": 1.7033406496047974,
          "264": -0.1550416499376297,
          "265": -0.7458463311195374,
          "266": 0.9196622371673584,
          "267": -1.0171698331832886,
          "268": -1.299945592880249,
          "269": -0.435618132352829,
          "270": 0.3090675473213196,
          "271": 0.39035528898239136,
          "272": -0.0645076110959053,
          "273": -0.41522079706192017,
          "274": 0.07380892336368561,
          "275": 1.2359269857406616,
          "276": -0.041939862072467804,
          "277": -0.43222305178642273,
          "278": 1.2268036603927612,
          "279": 1.315708875656128,
          "280": -1.5319353342056274,
          "281": 0.47676292061805725,
          "282": 0.17320102453231812,
          "283": -1.3546916246414185,
          "284": -0.18959282338619232,
          "285": 1.4508806467056274,
          "286": 0.16019971668720245,
          "287": 0.7168546319007874,
          "288": 2.8785159587860107,
          "289": -1.558118224143982,
          "290": -0.806332528591156,
          "291": 1.5365914106369019,
          "292": -0.9901381731033325,
          "293": -0.6753390431404114,
          "294": 0.00009247181151295081,
          "295": 0.8389418721199036,
          "296": -0.5862387418746948,
          "297": 0.7949212193489075,
          "298": -0.8325046896934509,
          "299": 0.7315310835838318,
          "300": 1.159622073173523,
          "301": 1.253745675086975,
          "302": -0.3011063039302826,
          "303": -0.9690952301025391,
          "304": -2.4793450832366943,
          "305": 0.9635984897613525,
          "306": 1.7398556470870972,
          "307": 0.19510233402252197,
          "308": -0.7270378470420837,
          "309": -0.3804401159286499,
          "310": -0.7083666920661926,
          "311": 0.9499924182891846,
          "312": -0.20708109438419342,
          "313": -1.0180529356002808,
          "314": 0.6876856088638306,
          "315": 0.9716447591781616,
          "316": 0.08675520122051239,
          "317": 0.7260026335716248,
          "318": 1.3249186277389526,
          "319": -1.3490909337997437,
          "320": 1.2431811094284058,
          "321": 0.517207145690918,
          "322": -0.9411857724189758,
          "323": -0.15348395705223083,
          "324": 0.04179445654153824,
          "325": 1.2459375858306885,
          "326": -1.4213252067565918,
          "327": -0.7895150780677795,
          "328": 0.5881984829902649,
          "329": -1.189438819885254,
          "330": -0.8763855695724487,
          "331": -0.38962429761886597,
          "332": -0.11521043628454208,
          "333": 1.4593769311904907,
          "334": -0.5335387587547302,
          "335": 0.46519559621810913,
          "336": -1.1293121576309204,
          "337": 0.30319079756736755,
          "338": -0.6840431690216064,
          "339": 0.3669505715370178,
          "340": 1.2520619630813599,
          "341": 0.40785208344459534,
          "342": -0.06975177675485611,
          "343": 2.0875730514526367,
          "344": -1.8297368288040161,
          "345": -0.3720788061618805,
          "346": 0.37024861574172974,
          "347": 1.4153246879577637,
          "348": 0.5909083485603333,
          "349": 1.420864462852478,
          "350": 0.9479369521141052,
          "351": -0.33989226818084717,
          "352": -1.544408917427063,
          "353": 0.2054334431886673,
          "354": 0.5780385136604309,
          "355": 0.7031235098838806,
          "356": 0.5389431715011597,
          "357": -0.5074847340583801,
          "358": -1.0296783447265625,
          "359": 1.3913933038711548,
          "360": -2.2892913818359375,
          "361": -1.3077406883239746,
          "362": 0.24652476608753204,
          "363": -0.3270221948623657,
          "364": 0.5822550654411316,
          "365": -0.7528437972068787,
          "366": -0.6992147564888,
          "367": 0.006888760719448328,
          "368": 1.5566954612731934,
          "369": -0.31718122959136963,
          "370": 0.468573659658432,
          "371": 0.14123962819576263,
          "372": -1.7944207191467285,
          "373": 0.7625324130058289,
          "374": -1.3062641620635986,
          "375": -1.9196906089782715,
          "376": 0.6593963503837585,
          "377": 2.252349853515625,
          "378": 0.1404632180929184,
          "379": 0.5274319052696228,
          "380": -0.008269019424915314,
          "381": 0.06761355698108673,
          "382": 0.39814358949661255,
          "383": -0.39273232221603394,
          "384": 0.6759716272354126,
          "385": 0.7221503257751465,
          "386": -0.590456485748291,
          "387": 0.7768965363502502,
          "388": -0.6956151723861694,
          "389": -1.0032715797424316,
          "390": 0.8001895546913147,
          "391": -0.4732988774776459,
          "392": -0.8428471088409424,
          "393": -0.7085703015327454,
          "394": 0.7874672412872314,
          "395": 0.2275407910346985,
          "396": -0.10260424017906189,
          "397": 0.3394821286201477,
          "398": -0.4728095233440399,
          "399": 1.3746410608291626,
          "400": 0.060392722487449646,
          "401": -0.12961144745349884,
          "402": 1.615276575088501,
          "403": 0.25762754678726196,
          "404": -0.4531036615371704,
          "405": 0.0880570262670517,
          "406": 0.5582675337791443,
          "407": -0.6156830787658691,
          "408": -0.15238551795482635,
          "409": 0.31408682465553284,
          "410": -0.2745829224586487,
          "411": 0.3100796937942505,
          "412": 1.6737295389175415,
          "413": -0.6041625142097473,
          "414": -1.5553936958312988,
          "415": 1.5669370889663696,
          "416": 0.8760800361633301,
          "417": -0.6307964324951172,
          "418": 0.13819056749343872,
          "419": 0.36773034930229187,
          "420": -0.2979543209075928,
          "421": 0.4558057188987732,
          "422": -1.0740966796875,
          "423": -0.2781023383140564,
          "424": 0.7834146022796631,
          "425": 0.67378169298172,
          "426": -0.2564998269081116,
          "427": 0.09066692739725113,
          "428": -0.16240805387496948,
          "429": 0.5420312881469727,
          "430": 0.9873183369636536,
          "431": 0.01867808774113655,
          "432": -1.1064056158065796,
          "433": 0.005016174167394638,
          "434": -0.010070988908410072,
          "435": -0.9835711717605591,
          "436": -0.8218725919723511,
          "437": 0.24564558267593384,
          "438": -1.1587220430374146,
          "439": -1.1951830387115479,
          "440": 0.538755476474762,
          "441": -1.1483443975448608,
          "442": -1.2963950634002686,
          "443": 1.3749690055847168,
          "444": 0.5573214888572693,
          "445": -0.7008283734321594,
          "446": 1.0008344650268555,
          "447": -0.1210021898150444,
          "448": -0.8193929195404053,
          "449": -1.3091028928756714,
          "450": 1.5883814096450806,
          "451": -0.10427200049161911,
          "452": 0.42502596974372864,
          "453": 2.260683298110962,
          "454": 0.18780528008937836,
          "455": 0.7130822539329529,
          "456": 0.6245884895324707,
          "457": -2.4193837642669678,
          "458": 1.0192233324050903,
          "459": -1.5559344291687012,
          "460": 1.9018197059631348,
          "461": 0.19387014210224152,
          "462": 1.006047248840332,
          "463": -0.8813655376434326,
          "464": -1.9490361213684082,
          "465": -0.41395336389541626,
          "466": -0.3040628135204315,
          "467": -1.0984991788864136,
          "468": -0.8530524373054504,
          "469": 0.035267073661088943,
          "470": 1.6306443214416504,
          "471": 1.0919969081878662,
          "472": 0.20560674369335175,
          "473": 1.0586836338043213,
          "474": 0.3818873465061188,
          "475": 0.1737711876630783,
          "476": -1.1941964626312256,
          "477": 2.7490129470825195,
          "478": -0.982613742351532,
          "479": 0.23137271404266357,
          "480": 1.7128952741622925,
          "481": -0.8126901984214783,
          "482": -0.66118323802948,
          "483": 0.586345911026001,
          "484": -0.6001063585281372,
          "485": 0.5279242396354675,
          "486": -0.29459160566329956,
          "487": -0.06255941092967987,
          "488": 1.0196748971939087,
          "489": -0.6853287220001221,
          "490": 0.27913612127304077,
          "491": 0.45250990986824036,
          "492": 2.586568832397461,
          "493": -0.3038373589515686,
          "494": 0.15047068893909454,
          "495": 1.2621614933013916,
          "496": -0.08159665763378143,
          "497": 0.28866779804229736,
          "498": -0.7828942537307739,
          "499": 0.5606465339660645,
          "500": -0.35901230573654175,
          "501": -0.10028180480003357,
          "502": 0.04376469925045967,
          "503": -0.26405277848243713,
          "504": 0.14131976664066315,
          "505": 0.18147511780261993,
          "506": 0.2260361909866333,
          "507": -0.4887720048427582,
          "508": 0.2637295424938202,
          "509": 0.5705256462097168,
          "510": -1.4249482154846191,
          "511": -0.27241092920303345,
          "512": 0.4044036567211151,
          "513": -0.33898890018463135,
          "514": 0.6302815079689026,
          "515": 0.40921032428741455,
          "516": -0.44883161783218384,
          "517": -0.020720863714814186,
          "518": 1.3755462169647217,
          "519": -0.46646440029144287,
          "520": -0.5706197023391724,
          "521": -0.15941037237644196,
          "522": 0.29736125469207764,
          "523": 0.6903806924819946,
          "524": 0.37935733795166016,
          "525": -1.6814945936203003,
          "526": -0.662138819694519,
          "527": -0.19858479499816895,
          "528": 0.07798521965742111,
          "529": -0.18524421751499176,
          "530": 1.419277310371399,
          "531": 0.8903949856758118,
          "532": 0.5820213556289673,
          "533": -0.8789750337600708,
          "534": 0.7557570338249207,
          "535": -0.7231379747390747,
          "536": 0.12758466601371765,
          "537": -0.5485071539878845,
          "538": 0.5248653888702393,
          "539": -0.9823253750801086,
          "540": 0.5227495431900024,
          "541": -0.3439822494983673,
          "542": 0.5877569913864136,
          "543": -0.6803497672080994,
          "544": 0.9374169111251831,
          "545": -1.1341280937194824,
          "546": -0.461750328540802,
          "547": 0.3932291567325592,
          "548": -0.8791605234146118,
          "549": 0.2766536772251129,
          "550": 0.3930688798427582,
          "551": -0.9170704483985901,
          "552": 0.7157983183860779,
          "553": -0.7170363068580627,
          "554": -0.4131956100463867,
          "555": -0.9663681387901306,
          "556": -0.2901231348514557,
          "557": 0.6045513153076172,
          "558": -0.8567699193954468,
          "559": -0.6567777991294861,
          "560": -1.1258009672164917,
          "561": -0.3412158191204071,
          "562": 0.20907965302467346,
          "563": -0.4050472378730774,
          "564": -0.907953679561615,
          "565": -1.6322011947631836,
          "566": -1.1073358058929443,
          "567": -0.5577435493469238,
          "568": 0.138300821185112,
          "569": -0.11438454687595367,
          "570": -0.23507127165794373,
          "571": 0.7202404737472534,
          "572": -1.0225541591644287,
          "573": -0.6455519199371338,
          "574": 0.9530802369117737,
          "575": -0.576930820941925,
          "576": 0.5504752397537231,
          "577": 0.4324515759944916,
          "578": -0.8381813168525696,
          "579": -0.36888977885246277,
          "580": 0.7841763496398926,
          "581": -1.6118059158325195,
          "582": -0.8698253631591797,
          "583": 0.493261456489563,
          "584": 1.0363296270370483,
          "585": 0.33293071389198303,
          "586": 0.5987184047698975,
          "587": -1.131232500076294,
          "588": -0.7526863813400269,
          "589": 1.2514498233795166,
          "590": 0.1175059825181961,
          "591": -0.23578470945358276,
          "592": -0.34938180446624756,
          "593": 0.38380318880081177,
          "594": -0.6905733346939087,
          "595": 1.6413934230804443,
          "596": -0.4388359785079956,
          "597": 1.138918399810791,
          "598": -0.9361997246742249,
          "599": 1.1366225481033325,
          "600": 0.7964943647384644,
          "601": -0.3258267939090729,
          "602": -1.6814600229263306,
          "603": 0.4587855041027069,
          "604": -0.534268319606781,
          "605": 0.316284716129303,
          "606": 0.608769953250885,
          "607": -1.4397472143173218,
          "608": 0.9456610083580017,
          "609": 2.159044027328491,
          "610": 0.007336433511227369,
          "611": -1.609189510345459,
          "612": -0.4009288549423218,
          "613": -0.28274476528167725,
          "614": -0.002836111467331648,
          "615": 0.23931877315044403,
          "616": -0.5268025398254395,
          "617": 0.058395881205797195,
          "618": 0.8578359484672546,
          "619": -0.5593239068984985
        }
      },
      "forgetHidden": {
        "rows": 20,
        "columns": 20,
        "weights": {
          "0": -0.6568121910095215,
          "1": -1.3326317071914673,
          "2": 0.178736612200737,
          "3": 0.5061635971069336,
          "4": -0.9239708185195923,
          "5": -0.690575897693634,
          "6": 0.1966843456029892,
          "7": -0.3615618050098419,
          "8": 0.33552974462509155,
          "9": 0.1919354796409607,
          "10": 0.19176486134529114,
          "11": -0.7688686847686768,
          "12": 0.4373031556606293,
          "13": -0.8810104131698608,
          "14": 0.33452966809272766,
          "15": 0.6603267788887024,
          "16": 0.17409540712833405,
          "17": 0.8275750875473022,
          "18": 0.04656101018190384,
          "19": -0.8023606538772583,
          "20": 0.963533341884613,
          "21": -1.949810266494751,
          "22": 0.9146180748939514,
          "23": -0.9358403086662292,
          "24": -1.1602882146835327,
          "25": 0.6439225077629089,
          "26": 0.47836577892303467,
          "27": 0.8557506203651428,
          "28": 0.2144424468278885,
          "29": 2.597623109817505,
          "30": 0.9638480544090271,
          "31": -0.38894757628440857,
          "32": -0.3888265788555145,
          "33": 0.4659382104873657,
          "34": 0.27903977036476135,
          "35": 0.1911386102437973,
          "36": 0.4381940960884094,
          "37": -1.0665240287780762,
          "38": 0.5845457315444946,
          "39": -0.10828650742769241,
